<?xml version="1.0"?>
<opencv_storage>
<cascade>
  <stageType>BOOST</stageType>
  <featureType>HAAR</featureType>
  <height>20</height>
  <width>20</width>
  <stageParams>
    <boostType>GAB</boostType>
    <minHitRate>9.9900001287460327e-01</minHitRate>
    <maxFalseAlarm>5.0000000745058060e-02</maxFalseAlarm>
    <weightTrimRate>9.4999999999999996e-01</weightTrimRate>
    <maxDepth>1</maxDepth>
    <maxWeakCount>100</maxWeakCount></stageParams>
  <featureParams>
    <maxCatCount>0</maxCatCount>
    <featSize>1</featSize>
    <mode>ALL</mode></featureParams>
  <stageNum>3</stageNum>
  <stages>
    <!-- stage 0 -->
    <_>
      <maxWeakCount>1</maxWeakCount>
      <stageThreshold>1.</stageThreshold>
      <weakClassifiers>
        <_>
          <internalNodes>
            0 -1 2 1.2123422324657440e-01</internalNodes>
          <leafValues>
            -1. 1.</leafValues></_></weakClassifiers></_>
    <!-- stage 1 -->
    <_>
      <maxWeakCount>2</maxWeakCount>
      <stageThreshold>-7.4300304055213928e-02</stageThreshold>
      <weakClassifiers>
        <_>
          <internalNodes>
            0 -1 1 -6.5460823476314545e-02</internalNodes>
          <leafValues>
            9.4477319717407227e-01 -9.7160243988037109e-01</leafValues></_>
        <_>
          <internalNodes>
            0 -1 0 -1.4411200582981110e-01</internalNodes>
          <leafValues>
            8.9730215072631836e-01 -9.5629632472991943e-01</leafValues></_></weakClassifiers></_>
    <!-- stage 2 -->
    <_>
      <maxWeakCount>4</maxWeakCount>
      <stageThreshold>-4.0067300200462341e-01</stageThreshold>
      <weakClassifiers>
        <_>
          <internalNodes>
            0 -1 4 1.5659411251544952e-01</internalNodes>
          <leafValues>
            -9.5180720090866089e-01 9.4422310590744019e-01</leafValues></_>
        <_>
          <internalNodes>
            0 -1 3 2.7060213685035706e-01</internalNodes>
          <leafValues>
            -1. 7.9132932424545288e-01</leafValues></_>
        <_>
          <internalNodes>
            0 -1 6 -3.1798452138900757e-02</internalNodes>
          <leafValues>
            8.1223219633102417e-01 -9.1094756126403809e-01</leafValues></_>
        <_>
          <internalNodes>
            0 -1 5 1.9136039912700653e-01</internalNodes>
          <leafValues>
            -9.8258674144744873e-01 6.7075240612030029e-01</leafValues></_></weakClassifiers></_></stages>
  <features>
    <_>
      <rects>
        <_>
          0 1 20 18 -1.</_>
        <_>
          5 1 10 18 2.</_></rects>
      <tilted>0</tilted></_>
    <_>
      <rects>
        <_>
          0 14 20 4 -1.</_>
        <_>
          5 14 10 4 2.</_></rects>
      <tilted>0</tilted></_>
    <_>
      <rects>
        <_>
          3 6 8 8 -1.</_>
        <_>
          3 8 8 4 2.</_></rects>
      <tilted>0</tilted></_>
    <_>
      <rects>
        <_>
          5 6 10 9 -1.</_>
        <_>
          5 9 10 3 3.</_></rects>
      <tilted>0</tilted></_>
    <_>
      <rects>
        <_>
          8 6 9 8 -1.</_>
        <_>
          8 8 9 4 2.</_></rects>
      <tilted>0</tilted></_>
    <_>
      <rects>
        <_>
          11 4 6 12 -1.</_>
        <_>
          13 8 2 4 9.</_></rects>
      <tilted>0</tilted></_>
    <_>
      <rects>
        <_>
          14 4 6 8 -1.</_>
        <_>
          14 4 3 4 2.</_>
        <_>
          17 8 3 4 2.</_></rects>
      <tilted>0</tilted></_></features></cascade>
</opencv_storage>
